<?xml version="1.0"?>
<opencv_storage>
<stage11>
  <maxWeakCount>11</maxWeakCount>
  <stageThreshold>-1.3763291835784912e+000</stageThreshold>
  <weakClassifiers>
    <_>
      <internalNodes>
        0 -1 55583 1.8326316028833389e-002</internalNodes>
      <leafValues>
        -5.9036141633987427e-001 3.6134454607963562e-001</leafValues></_>
    <_>
      <internalNodes>
        0 -1 1889 -1.6324927855748683e-004</internalNodes>
      <leafValues>
        3.3505296707153320e-001 -4.0261989831924438e-001</leafValues></_>
    <_>
      <internalNodes>
        0 -1 83131 -1.6420200467109680e-001</internalNodes>
      <leafValues>
        3.5382044315338135e-001 -4.4384393095970154e-001</leafValues></_>
    <_>
      <internalNodes>
        0 -1 47197 -5.3406185470521450e-003</internalNodes>
      <leafValues>
        4.6253865957260132e-001 -3.6143299937248230e-001</leafValues></_>
    <_>
      <internalNodes>
        0 -1 93231 -4.0646083652973175e-003</internalNodes>
      <leafValues>
        6.4333027601242065e-001 -2.2181628644466400e-001</leafValues></_>
    <_>
      <internalNodes>
        0 -1 124457 -8.7511245510540903e-005</internalNodes>
      <leafValues>
        4.9100744724273682e-001 -3.4957012534141541e-001</leafValues></_>
    <_>
      <internalNodes>
        0 -1 112924 7.4320450949016958e-005</internalNodes>
      <leafValues>
        -5.0768822431564331e-001 3.5145923495292664e-001</leafValues></_>
    <_>
      <internalNodes>
        0 -1 77225 1.3629257678985596e-002</internalNodes>
      <leafValues>
        2.6810336112976074e-001 -6.0338699817657471e-001</leafValues></_>
    <_>
      <internalNodes>
        0 -1 69409 5.6358426809310913e-003</internalNodes>
      <leafValues>
        -2.6619192957878113e-001 7.3539322614669800e-001</leafValues></_>
    <_>
      <internalNodes>
        0 -1 11062 8.3947945386171341e-003</internalNodes>
      <leafValues>
        -3.4524250030517578e-001 4.4499120116233826e-001</leafValues></_>
    <_>
      <internalNodes>
        0 -1 76090 -7.4976715259253979e-003</internalNodes>
      <leafValues>
        -8.8216733932495117e-001 2.0609280467033386e-001</leafValues></_></weakClassifiers></stage11>
</opencv_storage>
